<?xml version="1.0"?>
<MethodSetup Method="MLP::MLP">
  <GeneralInfo>
    <Info name="TMVA Release" value="4.2.1 [262657]"/>
    <Info name="ROOT Release" value="6.24/07 [399367]"/>
    <Info name="Creator" value="kzhang1"/>
    <Info name="Date" value="Mon Apr  3 23:26:37 2023"/>
    <Info name="Host" value="Linux cmsbuild02.cern.ch 3.10.0-1160.36.2.el7.x86_64 #1 SMP Wed Jul 21 11:57:15 UTC 2021 x86_64 x86_64 x86_64 GNU/Linux"/>
    <Info name="Dir" value="/uscms/homes/k/kzhang1/practice/CMSSW_12_4_3/src/CMSAnalysis/DataCollection/bin"/>
    <Info name="Training events" value="60497"/>
    <Info name="TrainingTime" value="1.57497531e+02"/>
    <Info name="AnalysisType" value="Classification"/>
  </GeneralInfo>
  <Options>
    <Option name="NCycles" modified="Yes">600</Option>
    <Option name="HiddenLayers" modified="Yes">N+5</Option>
    <Option name="NeuronType" modified="Yes">tanh</Option>
    <Option name="RandomSeed" modified="No">1</Option>
    <Option name="EstimatorType" modified="No">CE</Option>
    <Option name="NeuronInputType" modified="No">sum</Option>
    <Option name="V" modified="Yes">False</Option>
    <Option name="VerbosityLevel" modified="No">Default</Option>
    <Option name="VarTransform" modified="Yes">N</Option>
    <Option name="H" modified="Yes">True</Option>
    <Option name="CreateMVAPdfs" modified="No">False</Option>
    <Option name="IgnoreNegWeightsInTraining" modified="No">False</Option>
    <Option name="TrainingMethod" modified="No">BP</Option>
    <Option name="LearningRate" modified="No">2.000000e-02</Option>
    <Option name="DecayRate" modified="No">1.000000e-02</Option>
    <Option name="TestRate" modified="Yes">5</Option>
    <Option name="EpochMonitoring" modified="No">False</Option>
    <Option name="Sampling" modified="No">1.000000e+00</Option>
    <Option name="SamplingEpoch" modified="No">1.000000e+00</Option>
    <Option name="SamplingImportance" modified="No">1.000000e+00</Option>
    <Option name="SamplingTraining" modified="No">True</Option>
    <Option name="SamplingTesting" modified="No">False</Option>
    <Option name="ResetStep" modified="No">50</Option>
    <Option name="Tau" modified="No">3.000000e+00</Option>
    <Option name="BPMode" modified="No">sequential</Option>
    <Option name="BatchSize" modified="No">-1</Option>
    <Option name="ConvergenceImprove" modified="No">1.000000e-30</Option>
    <Option name="ConvergenceTests" modified="No">-1</Option>
    <Option name="UseRegulator" modified="Yes">False</Option>
    <Option name="UpdateLimit" modified="No">10000</Option>
    <Option name="CalculateErrors" modified="No">False</Option>
    <Option name="WeightRange" modified="No">1.000000e+00</Option>
  </Options>
  <Variables NVar="6">
    <Variable VarIndex="0" Expression="leadingPt" Label="leadingPt" Title="Leading Lepton Transverse Momentum" Unit="" Internal="leadingPt" Type="F" Min="5.07267761e+00" Max="2.13242891e+04"/>
    <Variable VarIndex="1" Expression="nParticles" Label="nParticles" Title="Number of Particles" Unit="" Internal="nParticles" Type="F" Min="2.00000000e+00" Max="5.00000000e+00"/>
    <Variable VarIndex="2" Expression="eta" Label="eta" Title="Pseudorapidity" Unit="" Internal="eta" Type="F" Min="-2.51045442e+00" Max="2.50291920e+00"/>
    <Variable VarIndex="3" Expression="phi" Label="phi" Title="Azimuthal Angle" Unit="" Internal="phi" Type="F" Min="-3.14158964e+00" Max="3.14142203e+00"/>
    <Variable VarIndex="4" Expression="deltaR" Label="deltaR" Title="Jet Width" Unit="" Internal="deltaR" Type="F" Min="0.00000000e+00" Max="8.76891136e-01"/>
    <Variable VarIndex="5" Expression="sumPt" Label="sumPt" Title="Total Transverse Momentum" Unit="" Internal="sumPt" Type="F" Min="1.01124496e+01" Max="2.14412852e+04"/>
  </Variables>
  <Spectators NSpec="0"/>
  <Classes NClass="2">
    <Class Name="Signal" Index="0"/>
    <Class Name="Background" Index="1"/>
  </Classes>
  <Transformations NTransformations="1">
    <Transform Name="Normalize">
      <Selection>
        <Input NInputs="6">
          <Input Type="Variable" Label="leadingPt" Expression="leadingPt"/>
          <Input Type="Variable" Label="nParticles" Expression="nParticles"/>
          <Input Type="Variable" Label="eta" Expression="eta"/>
          <Input Type="Variable" Label="phi" Expression="phi"/>
          <Input Type="Variable" Label="deltaR" Expression="deltaR"/>
          <Input Type="Variable" Label="sumPt" Expression="sumPt"/>
        </Input>
        <Output NOutputs="6">
          <Output Type="Variable" Label="leadingPt" Expression="leadingPt"/>
          <Output Type="Variable" Label="nParticles" Expression="nParticles"/>
          <Output Type="Variable" Label="eta" Expression="eta"/>
          <Output Type="Variable" Label="phi" Expression="phi"/>
          <Output Type="Variable" Label="deltaR" Expression="deltaR"/>
          <Output Type="Variable" Label="sumPt" Expression="sumPt"/>
        </Output>
      </Selection>
      <Class ClassIndex="0">
        <Ranges>
          <Range Index="0" Min="7.1525268554687500e+00" Max="2.1324289062500000e+04"/>
          <Range Index="1" Min="2.0000000000000000e+00" Max="5.0000000000000000e+00"/>
          <Range Index="2" Min="-2.5104544162750244e+00" Max="2.4430646896362305e+00"/>
          <Range Index="3" Min="-3.1414787769317627e+00" Max="3.1414220333099365e+00"/>
          <Range Index="4" Min="2.0114002109039575e-04" Max="5.3219145536422729e-01"/>
          <Range Index="5" Min="1.2908980369567871e+01" Max="2.1441285156250000e+04"/>
        </Ranges>
      </Class>
      <Class ClassIndex="1">
        <Ranges>
          <Range Index="0" Min="5.0726776123046875e+00" Max="7.5313574218750000e+03"/>
          <Range Index="1" Min="2.0000000000000000e+00" Max="4.0000000000000000e+00"/>
          <Range Index="2" Min="-2.4994776248931885e+00" Max="2.5029191970825195e+00"/>
          <Range Index="3" Min="-3.1415896415710449e+00" Max="3.1413936614990234e+00"/>
          <Range Index="4" Min="0.0000000000000000e+00" Max="8.7689113616943359e-01"/>
          <Range Index="5" Min="1.0112449645996094e+01" Max="7.5664101562500000e+03"/>
        </Ranges>
      </Class>
      <Class ClassIndex="2">
        <Ranges>
          <Range Index="0" Min="5.0726776123046875e+00" Max="2.1324289062500000e+04"/>
          <Range Index="1" Min="2.0000000000000000e+00" Max="5.0000000000000000e+00"/>
          <Range Index="2" Min="-2.5104544162750244e+00" Max="2.5029191970825195e+00"/>
          <Range Index="3" Min="-3.1415896415710449e+00" Max="3.1414220333099365e+00"/>
          <Range Index="4" Min="0.0000000000000000e+00" Max="8.7689113616943359e-01"/>
          <Range Index="5" Min="1.0112449645996094e+01" Max="2.1441285156250000e+04"/>
        </Ranges>
      </Class>
    </Transform>
  </Transformations>
  <MVAPdfs/>
  <Weights>
    <Layout NLayers="3">
      <Layer Index="0" NNeurons="7">
        <Neuron NSynapses="11">
          -9.9876981912229446e-01 1.3532653897463062e+01 2.5866306116981539e+00 1.2420607484003896e+00 -3.3200718307685055e+00 -2.2922693176256921e+00 -1.4560616951021654e+00 2.5982219658226344e+00 3.9149067161538782e+00 -6.7336199972874944e-01 -3.2653527929707438e+00 
        </Neuron>
        <Neuron NSynapses="11">
          -2.7166286882461850e+00 -1.2931533107577588e+01 2.5306058413424326e-01 -1.0448263369398190e+00 1.2565063689469511e+00 -1.0151566812077280e+00 8.6219492807725795e-01 6.3869920272514674e-02 -9.0930551628506728e-01 -3.4135546890030560e-01 -2.1651046204038589e+00 
        </Neuron>
        <Neuron NSynapses="11">
          8.3593819765122784e-02 7.0495084556487786e-02 -2.6499019807418538e+00 -4.4037711183823192e-01 1.8145913575646522e-01 -1.1285019850677191e+00 -4.0259676023397954e+00 3.6763191317706942e+00 -1.4575304632618958e-02 1.1964674882369037e+00 -4.8447525691591810e-02 
        </Neuron>
        <Neuron NSynapses="11">
          -3.9820033569785054e-03 5.5235501670669648e-03 -1.4235505100156469e-02 -1.8618296426116838e+00 6.5423254632561989e-01 -7.9321691747929002e-01 9.9859078157110669e-03 -2.8174043164500029e-01 -1.2117302699113311e-01 2.5131532104032490e+00 -1.4255901843166316e-01 
        </Neuron>
        <Neuron NSynapses="11">
          1.0221394372991839e+00 -2.8678586021025336e+00 2.9971472707664198e-01 -1.5197745735243931e-01 2.7795702221269591e+00 6.1885560704389520e-01 -2.2397181231133106e-01 1.6990996373951459e+00 1.9272030602359518e+00 8.3121139883033901e-01 6.6401379036840125e-01 
        </Neuron>
        <Neuron NSynapses="11">
          -2.2779191285794500e+00 1.4281712282708382e+01 4.2903738750257364e-01 1.0473720208396928e+00 -7.6464268083040843e-01 -2.3888413514326938e+00 -7.9833002071099857e-01 1.6471618211682645e-01 8.6074111042734227e+00 2.3276941996369405e+00 -2.6605262254605391e+00 
        </Neuron>
        <Neuron NSynapses="11">
          -3.5051347400911741e+00 1.1713120410759320e+01 4.2461202593305476e+00 -3.8712933989025838e-01 -1.7609592033345172e+00 -5.6168328516851596e-01 -2.7481849873057351e+00 -4.9678577625842707e-01 1.3426419615752600e+01 2.2216701450512735e-01 -6.4704389968533533e+00 
        </Neuron>
      </Layer>
      <Layer Index="1" NNeurons="12">
        <Neuron NSynapses="1">
          -3.8148180064186987e+00 
        </Neuron>
        <Neuron NSynapses="1">
          9.0918595338105970e+00 
        </Neuron>
        <Neuron NSynapses="1">
          2.0329871744720047e+00 
        </Neuron>
        <Neuron NSynapses="1">
          -5.2976891474911414e-01 
        </Neuron>
        <Neuron NSynapses="1">
          -1.5921908367654178e+00 
        </Neuron>
        <Neuron NSynapses="1">
          3.0106740018102762e+00 
        </Neuron>
        <Neuron NSynapses="1">
          -1.4668647176586287e+00 
        </Neuron>
        <Neuron NSynapses="1">
          -2.9000151083827652e+00 
        </Neuron>
        <Neuron NSynapses="1">
          6.3686846989488037e+00 
        </Neuron>
        <Neuron NSynapses="1">
          3.9651585894273211e-01 
        </Neuron>
        <Neuron NSynapses="1">
          -4.9346641100136610e+00 
        </Neuron>
        <Neuron NSynapses="1">
          8.2267839639199114e-01 
        </Neuron>
      </Layer>
      <Layer Index="2" NNeurons="1">
        <Neuron NSynapses="0"/>
      </Layer>
    </Layout>
  </Weights>
</MethodSetup>
