<?xml version="1.0"?>
<MethodSetup Method="MLP::MLP">
  <GeneralInfo>
    <Info name="TMVA Release" value="4.2.1 [262657]"/>
    <Info name="ROOT Release" value="6.30/03 [400899]"/>
    <Info name="Creator" value="satyam"/>
    <Info name="Date" value="Fri May 10 15:00:40 2024"/>
    <Info name="Host" value="Linux cmsbuild105.cern.ch 4.18.0-513.9.1.el8_9.x86_64 #1 SMP Sat Dec 2 05:23:44 EST 2023 x86_64 x86_64 x86_64 GNU/Linux"/>
    <Info name="Dir" value="/uscms/homes/s/satyam/fakeAnalysis/CMSSW_14_0_4/src/CMSAnalysis/DataCollection/bin"/>
    <Info name="Training events" value="441124"/>
    <Info name="TrainingTime" value="8.71247549e+02"/>
    <Info name="AnalysisType" value="Classification"/>
  </GeneralInfo>
  <Options>
    <Option name="NCycles" modified="Yes">600</Option>
    <Option name="HiddenLayers" modified="Yes">N+5</Option>
    <Option name="NeuronType" modified="Yes">tanh</Option>
    <Option name="RandomSeed" modified="No">1</Option>
    <Option name="EstimatorType" modified="No">CE</Option>
    <Option name="NeuronInputType" modified="No">sum</Option>
    <Option name="V" modified="Yes">False</Option>
    <Option name="VerbosityLevel" modified="No">Default</Option>
    <Option name="VarTransform" modified="Yes">N</Option>
    <Option name="H" modified="Yes">True</Option>
    <Option name="CreateMVAPdfs" modified="No">False</Option>
    <Option name="IgnoreNegWeightsInTraining" modified="No">False</Option>
    <Option name="TrainingMethod" modified="No">BP</Option>
    <Option name="LearningRate" modified="No">2.000000e-02</Option>
    <Option name="DecayRate" modified="No">1.000000e-02</Option>
    <Option name="TestRate" modified="Yes">5</Option>
    <Option name="EpochMonitoring" modified="No">False</Option>
    <Option name="Sampling" modified="No">1.000000e+00</Option>
    <Option name="SamplingEpoch" modified="No">1.000000e+00</Option>
    <Option name="SamplingImportance" modified="No">1.000000e+00</Option>
    <Option name="SamplingTraining" modified="No">True</Option>
    <Option name="SamplingTesting" modified="No">False</Option>
    <Option name="ResetStep" modified="No">50</Option>
    <Option name="Tau" modified="No">3.000000e+00</Option>
    <Option name="BPMode" modified="No">sequential</Option>
    <Option name="BatchSize" modified="No">-1</Option>
    <Option name="ConvergenceImprove" modified="No">1.000000e-30</Option>
    <Option name="ConvergenceTests" modified="No">-1</Option>
    <Option name="UseRegulator" modified="Yes">False</Option>
    <Option name="UpdateLimit" modified="No">10000</Option>
    <Option name="CalculateErrors" modified="No">False</Option>
    <Option name="WeightRange" modified="No">1.000000e+00</Option>
  </Options>
  <Variables NVar="6">
    <Variable VarIndex="0" Expression="deltaPt" Label="deltaPt" Title="deltaPt" Unit="" Internal="deltaPt" Type="F" Min="0.00000000e+00" Max="4.17565381e+03"/>
    <Variable VarIndex="1" Expression="deltaR" Label="deltaR" Title="deltaR" Unit="" Internal="deltaR" Type="F" Min="0.00000000e+00" Max="6.34997785e-01"/>
    <Variable VarIndex="2" Expression="eta" Label="eta" Title="eta" Unit="" Internal="eta" Type="F" Min="-2.44719529e+00" Max="2.44395852e+00"/>
    <Variable VarIndex="3" Expression="maxIsolation" Label="maxIsolation" Title="maxIsolation" Unit="" Internal="maxIsolation" Type="F" Min="0.00000000e+00" Max="6.76679688e+01"/>
    <Variable VarIndex="4" Expression="nParticles" Label="nParticles" Title="nParticles" Unit="" Internal="nParticles" Type="F" Min="0.00000000e+00" Max="4.00000000e+00"/>
    <Variable VarIndex="5" Expression="sumPt" Label="sumPt" Title="sumPt" Unit="" Internal="sumPt" Type="F" Min="0.00000000e+00" Max="4.24545654e+03"/>
  </Variables>
  <Spectators NSpec="0"/>
  <Classes NClass="2">
    <Class Name="Signal" Index="0"/>
    <Class Name="Background" Index="1"/>
  </Classes>
  <Transformations NTransformations="1">
    <Transform Name="Normalize">
      <Selection>
        <Input NInputs="6">
          <Input Type="Variable" Label="deltaPt" Expression="deltaPt"/>
          <Input Type="Variable" Label="deltaR" Expression="deltaR"/>
          <Input Type="Variable" Label="eta" Expression="eta"/>
          <Input Type="Variable" Label="maxIsolation" Expression="maxIsolation"/>
          <Input Type="Variable" Label="nParticles" Expression="nParticles"/>
          <Input Type="Variable" Label="sumPt" Expression="sumPt"/>
        </Input>
        <Output NOutputs="6">
          <Output Type="Variable" Label="deltaPt" Expression="deltaPt"/>
          <Output Type="Variable" Label="deltaR" Expression="deltaR"/>
          <Output Type="Variable" Label="eta" Expression="eta"/>
          <Output Type="Variable" Label="maxIsolation" Expression="maxIsolation"/>
          <Output Type="Variable" Label="nParticles" Expression="nParticles"/>
          <Output Type="Variable" Label="sumPt" Expression="sumPt"/>
        </Output>
      </Selection>
      <Class ClassIndex="0">
        <Ranges>
          <Range Index="0" Min="5.5158348083496094e+00" Max="1.2992087402343750e+03"/>
          <Range Index="1" Min="1.7263348854612559e-04" Max="5.6336724758148193e-01"/>
          <Range Index="2" Min="-2.4429285526275635e+00" Max="2.4439585208892822e+00"/>
          <Range Index="3" Min="0.0000000000000000e+00" Max="6.7667968750000000e+01"/>
          <Range Index="4" Min="2.0000000000000000e+00" Max="4.0000000000000000e+00"/>
          <Range Index="5" Min="1.0847788810729980e+01" Max="1.3770496826171875e+03"/>
        </Ranges>
      </Class>
      <Class ClassIndex="1">
        <Ranges>
          <Range Index="0" Min="0.0000000000000000e+00" Max="4.1756538085937500e+03"/>
          <Range Index="1" Min="0.0000000000000000e+00" Max="6.3499778509140015e-01"/>
          <Range Index="2" Min="-2.4471952915191650e+00" Max="2.4412250518798828e+00"/>
          <Range Index="3" Min="0.0000000000000000e+00" Max="1.4307935714721680e+01"/>
          <Range Index="4" Min="0.0000000000000000e+00" Max="4.0000000000000000e+00"/>
          <Range Index="5" Min="0.0000000000000000e+00" Max="4.2454565429687500e+03"/>
        </Ranges>
      </Class>
      <Class ClassIndex="2">
        <Ranges>
          <Range Index="0" Min="0.0000000000000000e+00" Max="4.1756538085937500e+03"/>
          <Range Index="1" Min="0.0000000000000000e+00" Max="6.3499778509140015e-01"/>
          <Range Index="2" Min="-2.4471952915191650e+00" Max="2.4439585208892822e+00"/>
          <Range Index="3" Min="0.0000000000000000e+00" Max="6.7667968750000000e+01"/>
          <Range Index="4" Min="0.0000000000000000e+00" Max="4.0000000000000000e+00"/>
          <Range Index="5" Min="0.0000000000000000e+00" Max="4.2454565429687500e+03"/>
        </Ranges>
      </Class>
    </Transform>
  </Transformations>
  <MVAPdfs/>
  <Weights>
    <Layout NLayers="3">
      <Layer Index="0" NNeurons="7">
        <Neuron NSynapses="11">
          -7.1570862995862372e+00 1.0718910208140183e+01 5.1425581882481843e+00 2.4782448916989971e+01 -7.2580332673433234e-01 -2.1008331151777626e+00 -8.1886733957350231e+00 2.8643462099716519e+00 -2.9734592737799246e+00 -2.6202464636970104e+00 -1.6472609254063642e+01 
        </Neuron>
        <Neuron NSynapses="11">
          7.3982266767480480e+00 -7.2438075943186577e+00 -2.1678975913247860e+00 -4.8464303301010512e+00 2.1507305790028588e+00 -8.3029780965928801e-01 -5.1463902824970464e-01 2.7704011721248025e+00 7.5520300596482688e+00 7.1141230875845707e-01 -2.7647795644261066e+00 
        </Neuron>
        <Neuron NSynapses="11">
          -6.2536749121982265e+00 -1.7840950334823440e+00 -4.3813186481964310e+00 6.6075366498202015e-01 3.6645811922335869e+00 1.9893736287235069e+00 -5.1194388828860511e+00 4.0072171424632765e+00 8.1809366937005983e+00 -7.9384667553658084e-01 1.0390797461123080e+00 
        </Neuron>
        <Neuron NSynapses="11">
          5.3241146614528674e+00 7.5491809287413725e-02 -1.1206437764904620e+00 -4.5739121424593758e+00 2.0689974291958344e+00 2.7820551379121286e+00 5.3315387289886447e+00 -4.4979919621700648e-01 1.3340004990536398e+00 8.6977629922905830e+00 6.0876152490871958e+00 
        </Neuron>
        <Neuron NSynapses="11">
          -3.5737668851524158e+00 -1.3094762866744094e+00 3.2188632258600611e+00 2.2932277401119165e+00 5.7696353201904147e+00 4.0306000333942897e+00 3.7101156643169864e+00 -4.3611315326990552e-01 -4.6805761826657459e+00 -1.3684394633027888e+00 6.8543086557116484e-01 
        </Neuron>
        <Neuron NSynapses="11">
          -4.7474769714685943e+00 2.4575808370527490e+00 -3.1104065436774726e+00 4.0484279835286223e+00 1.7881920772816891e+00 -8.7201897577416325e+00 -3.4899318508669759e+00 1.8040909688477254e+00 1.9863922656334674e+00 1.1118143526283850e-01 5.6651495662818823e+00 
        </Neuron>
        <Neuron NSynapses="11">
          -5.9055545059826575e-01 5.1884675640016971e+00 -1.1775501557823214e+00 1.8907721982263400e+01 4.0529861354257374e-01 -4.6688383047002455e+00 -8.1353597657706924e+00 1.2892450253066308e+00 5.9317813456898005e-01 2.7172989596975734e+00 -6.9926703095132519e+00 
        </Neuron>
      </Layer>
      <Layer Index="1" NNeurons="12">
        <Neuron NSynapses="1">
          -1.2742325441815641e+00 
        </Neuron>
        <Neuron NSynapses="1">
          1.5579586234423113e+00 
        </Neuron>
        <Neuron NSynapses="1">
          3.2893168435282583e+00 
        </Neuron>
        <Neuron NSynapses="1">
          2.9650700459724471e+00 
        </Neuron>
        <Neuron NSynapses="1">
          3.1043705245202546e+00 
        </Neuron>
        <Neuron NSynapses="1">
          7.1759170011216487e+00 
        </Neuron>
        <Neuron NSynapses="1">
          -3.8998976279624058e+00 
        </Neuron>
        <Neuron NSynapses="1">
          -4.2722225455739560e+00 
        </Neuron>
        <Neuron NSynapses="1">
          -8.4459454919708954e-01 
        </Neuron>
        <Neuron NSynapses="1">
          7.6215670944331118e+00 
        </Neuron>
        <Neuron NSynapses="1">
          -3.2128358325609385e+00 
        </Neuron>
        <Neuron NSynapses="1">
          -6.4233809265999575e-01 
        </Neuron>
      </Layer>
      <Layer Index="2" NNeurons="1">
        <Neuron NSynapses="0"/>
      </Layer>
    </Layout>
  </Weights>
</MethodSetup>
