<?xml version="1.0"?>
<MethodSetup Method="MLP::MLP">
  <GeneralInfo>
    <Info name="TMVA Release" value="4.2.1 [262657]"/>
    <Info name="ROOT Release" value="6.24/07 [399367]"/>
    <Info name="Creator" value="kzhang1"/>
    <Info name="Date" value="Tue Nov 29 15:40:27 2022"/>
    <Info name="Host" value="Linux cmsbuild02.cern.ch 3.10.0-1160.36.2.el7.x86_64 #1 SMP Wed Jul 21 11:57:15 UTC 2021 x86_64 x86_64 x86_64 GNU/Linux"/>
    <Info name="Dir" value="/uscms/homes/k/kzhang1/practice/CMSSW_12_4_3/src/CMSAnalysis/DataCollection/bin"/>
    <Info name="Training events" value="4302"/>
    <Info name="TrainingTime" value="1.68849330e+01"/>
    <Info name="AnalysisType" value="Classification"/>
  </GeneralInfo>
  <Options>
    <Option name="NCycles" modified="Yes">600</Option>
    <Option name="HiddenLayers" modified="Yes">N+5</Option>
    <Option name="NeuronType" modified="Yes">tanh</Option>
    <Option name="RandomSeed" modified="No">1</Option>
    <Option name="EstimatorType" modified="No">CE</Option>
    <Option name="NeuronInputType" modified="No">sum</Option>
    <Option name="V" modified="Yes">False</Option>
    <Option name="VerbosityLevel" modified="No">Default</Option>
    <Option name="VarTransform" modified="Yes">N</Option>
    <Option name="H" modified="Yes">True</Option>
    <Option name="CreateMVAPdfs" modified="No">False</Option>
    <Option name="IgnoreNegWeightsInTraining" modified="No">False</Option>
    <Option name="TrainingMethod" modified="No">BP</Option>
    <Option name="LearningRate" modified="No">2.000000e-02</Option>
    <Option name="DecayRate" modified="No">1.000000e-02</Option>
    <Option name="TestRate" modified="Yes">5</Option>
    <Option name="EpochMonitoring" modified="No">False</Option>
    <Option name="Sampling" modified="No">1.000000e+00</Option>
    <Option name="SamplingEpoch" modified="No">1.000000e+00</Option>
    <Option name="SamplingImportance" modified="No">1.000000e+00</Option>
    <Option name="SamplingTraining" modified="No">True</Option>
    <Option name="SamplingTesting" modified="No">False</Option>
    <Option name="ResetStep" modified="No">50</Option>
    <Option name="Tau" modified="No">3.000000e+00</Option>
    <Option name="BPMode" modified="No">sequential</Option>
    <Option name="BatchSize" modified="No">-1</Option>
    <Option name="ConvergenceImprove" modified="No">1.000000e-30</Option>
    <Option name="ConvergenceTests" modified="No">-1</Option>
    <Option name="UseRegulator" modified="Yes">False</Option>
    <Option name="UpdateLimit" modified="No">10000</Option>
    <Option name="CalculateErrors" modified="No">False</Option>
    <Option name="WeightRange" modified="No">1.000000e+00</Option>
  </Options>
  <Variables NVar="5">
    <Variable VarIndex="0" Expression="pt" Label="pt" Title="Transverse Momentum" Unit="" Internal="pt" Type="F" Min="8.94119263e+00" Max="2.08413501e+03"/>
    <Variable VarIndex="1" Expression="nParticles" Label="nParticles" Title="Number of Particles" Unit="" Internal="nParticles" Type="F" Min="2.00000000e+00" Max="5.00000000e+00"/>
    <Variable VarIndex="2" Expression="eta" Label="eta" Title="Pseudorapidity" Unit="" Internal="eta" Type="F" Min="-3.13767219e+00" Max="3.12934875e+00"/>
    <Variable VarIndex="3" Expression="phi" Label="phi" Title="Azimuthal Angle" Unit="" Internal="phi" Type="F" Min="-3.13815546e+00" Max="3.13753390e+00"/>
    <Variable VarIndex="4" Expression="deltaR" Label="deltaR" Title="Jet Width" Unit="" Internal="deltaR" Type="F" Min="0.00000000e+00" Max="1.91068515e-01"/>
  </Variables>
  <Spectators NSpec="0"/>
  <Classes NClass="2">
    <Class Name="Signal" Index="0"/>
    <Class Name="Background" Index="1"/>
  </Classes>
  <Transformations NTransformations="1">
    <Transform Name="Normalize">
      <Selection>
        <Input NInputs="5">
          <Input Type="Variable" Label="pt" Expression="pt"/>
          <Input Type="Variable" Label="nParticles" Expression="nParticles"/>
          <Input Type="Variable" Label="eta" Expression="eta"/>
          <Input Type="Variable" Label="phi" Expression="phi"/>
          <Input Type="Variable" Label="deltaR" Expression="deltaR"/>
        </Input>
        <Output NOutputs="5">
          <Output Type="Variable" Label="pt" Expression="pt"/>
          <Output Type="Variable" Label="nParticles" Expression="nParticles"/>
          <Output Type="Variable" Label="eta" Expression="eta"/>
          <Output Type="Variable" Label="phi" Expression="phi"/>
          <Output Type="Variable" Label="deltaR" Expression="deltaR"/>
        </Output>
      </Selection>
      <Class ClassIndex="0">
        <Ranges>
          <Range Index="0" Min="8.9411926269531250e+00" Max="2.0841350097656250e+03"/>
          <Range Index="1" Min="2.0000000000000000e+00" Max="5.0000000000000000e+00"/>
          <Range Index="2" Min="-3.1376721858978271e+00" Max="3.1293487548828125e+00"/>
          <Range Index="3" Min="-3.1381554603576660e+00" Max="3.1375339031219482e+00"/>
          <Range Index="4" Min="0.0000000000000000e+00" Max="1.9106851518154144e-01"/>
        </Ranges>
      </Class>
      <Class ClassIndex="1">
        <Ranges>
          <Range Index="0" Min="1.0554446220397949e+01" Max="4.2687213134765625e+02"/>
          <Range Index="1" Min="2.0000000000000000e+00" Max="3.0000000000000000e+00"/>
          <Range Index="2" Min="-3.0752463340759277e+00" Max="3.0906586647033691e+00"/>
          <Range Index="3" Min="-3.0752446651458740e+00" Max="3.1042685508728027e+00"/>
          <Range Index="4" Min="0.0000000000000000e+00" Max="9.9314406514167786e-02"/>
        </Ranges>
      </Class>
      <Class ClassIndex="2">
        <Ranges>
          <Range Index="0" Min="8.9411926269531250e+00" Max="2.0841350097656250e+03"/>
          <Range Index="1" Min="2.0000000000000000e+00" Max="5.0000000000000000e+00"/>
          <Range Index="2" Min="-3.1376721858978271e+00" Max="3.1293487548828125e+00"/>
          <Range Index="3" Min="-3.1381554603576660e+00" Max="3.1375339031219482e+00"/>
          <Range Index="4" Min="0.0000000000000000e+00" Max="1.9106851518154144e-01"/>
        </Ranges>
      </Class>
    </Transform>
  </Transformations>
  <MVAPdfs/>
  <Weights>
    <Layout NLayers="3">
      <Layer Index="0" NNeurons="6">
        <Neuron NSynapses="10">
          2.1509092009018208e-01 9.2256026541342084e+00 1.3225694221840811e+00 1.0704044226465237e+01 -2.8625236884948837e+00 -5.1837401677757118e+00 3.2590657452442553e+00 2.2746684598289848e+00 1.8201612825248716e+00 6.0768400785416288e-02 
        </Neuron>
        <Neuron NSynapses="10">
          -4.2844653027860744e+00 -2.9804883103951143e+00 -2.7040387962678487e+00 -4.5662705058189683e+00 -1.0184626137996202e+00 7.8527971277934827e-01 -1.0890840145651053e+00 1.7110569340108943e+00 -4.6058306231909141e-01 8.4249365059362735e-01 
        </Neuron>
        <Neuron NSynapses="10">
          -9.0142584834247974e-01 -3.8191233476756685e+00 -2.8892686053486840e+00 -1.2298590071916164e-01 -1.0085129401806003e+00 8.8188211934045679e-01 1.0870070341044542e+01 -9.8750965956982850e-01 -9.4092382158267149e+00 1.2223430446959063e+00 
        </Neuron>
        <Neuron NSynapses="10">
          4.9911369389849630e-01 -6.4247701639426691e-01 -6.3349080014617454e-01 -1.1436374045611339e-01 1.1984348883943344e-01 8.7666038355665421e-01 6.3162724075738905e-02 1.5004839182209528e+00 3.0034248940128272e-01 -7.4453588905666590e-01 
        </Neuron>
        <Neuron NSynapses="10">
          -5.6178702553504556e-01 4.5038476461684374e+00 3.7550756678405492e+00 2.3514560462654117e+00 -1.3285694216984110e+00 -1.0774485581654517e+01 6.9133365870755759e+00 1.9518545977799032e-01 7.9721325256362627e+00 2.5567546450789576e+00 
        </Neuron>
        <Neuron NSynapses="10">
          -7.8731735790866453e-01 5.4572542692326875e+00 -1.1746487705990991e-01 6.7213273191470906e+00 -7.0915995221861303e-02 -1.2166580376286207e+01 7.2498443669004544e+00 -2.1941077536066276e+00 1.0537004632417649e+01 1.3174915637507807e+00 
        </Neuron>
      </Layer>
      <Layer Index="1" NNeurons="11">
        <Neuron NSynapses="1">
          -3.4231656279362710e+00 
        </Neuron>
        <Neuron NSynapses="1">
          4.2877469258392740e+00 
        </Neuron>
        <Neuron NSynapses="1">
          -2.6222211286148038e+00 
        </Neuron>
        <Neuron NSynapses="1">
          1.2695385384092979e+00 
        </Neuron>
        <Neuron NSynapses="1">
          1.1820081554188444e+00 
        </Neuron>
        <Neuron NSynapses="1">
          -2.5295395957270954e+00 
        </Neuron>
        <Neuron NSynapses="1">
          2.7844656458811516e+00 
        </Neuron>
        <Neuron NSynapses="1">
          -2.0150483287988799e+00 
        </Neuron>
        <Neuron NSynapses="1">
          3.1368342351592546e+00 
        </Neuron>
        <Neuron NSynapses="1">
          -2.2854468522765532e+00 
        </Neuron>
        <Neuron NSynapses="1">
          2.2346599068686709e-01 
        </Neuron>
      </Layer>
      <Layer Index="2" NNeurons="1">
        <Neuron NSynapses="0"/>
      </Layer>
    </Layout>
  </Weights>
</MethodSetup>
