<?xml version="1.0"?>
<MethodSetup Method="MLP::MLP">
  <GeneralInfo>
    <Info name="TMVA Release" value="4.2.1 [262657]"/>
    <Info name="ROOT Release" value="6.24/07 [399367]"/>
    <Info name="Creator" value="kzhang1"/>
    <Info name="Date" value="Sat Dec 10 20:47:23 2022"/>
    <Info name="Host" value="Linux cmsbuild02.cern.ch 3.10.0-1160.36.2.el7.x86_64 #1 SMP Wed Jul 21 11:57:15 UTC 2021 x86_64 x86_64 x86_64 GNU/Linux"/>
    <Info name="Dir" value="/uscms/homes/k/kzhang1/practice/CMSSW_12_4_3/src/CMSAnalysis/DataCollection/bin"/>
    <Info name="Training events" value="9889"/>
    <Info name="TrainingTime" value="4.62542510e+01"/>
    <Info name="AnalysisType" value="Classification"/>
  </GeneralInfo>
  <Options>
    <Option name="NCycles" modified="Yes">600</Option>
    <Option name="HiddenLayers" modified="Yes">N+5</Option>
    <Option name="NeuronType" modified="Yes">tanh</Option>
    <Option name="RandomSeed" modified="No">1</Option>
    <Option name="EstimatorType" modified="No">CE</Option>
    <Option name="NeuronInputType" modified="No">sum</Option>
    <Option name="V" modified="Yes">False</Option>
    <Option name="VerbosityLevel" modified="No">Default</Option>
    <Option name="VarTransform" modified="Yes">N</Option>
    <Option name="H" modified="Yes">True</Option>
    <Option name="CreateMVAPdfs" modified="No">False</Option>
    <Option name="IgnoreNegWeightsInTraining" modified="No">False</Option>
    <Option name="TrainingMethod" modified="No">BP</Option>
    <Option name="LearningRate" modified="No">2.000000e-02</Option>
    <Option name="DecayRate" modified="No">1.000000e-02</Option>
    <Option name="TestRate" modified="Yes">5</Option>
    <Option name="EpochMonitoring" modified="No">False</Option>
    <Option name="Sampling" modified="No">1.000000e+00</Option>
    <Option name="SamplingEpoch" modified="No">1.000000e+00</Option>
    <Option name="SamplingImportance" modified="No">1.000000e+00</Option>
    <Option name="SamplingTraining" modified="No">True</Option>
    <Option name="SamplingTesting" modified="No">False</Option>
    <Option name="ResetStep" modified="No">50</Option>
    <Option name="Tau" modified="No">3.000000e+00</Option>
    <Option name="BPMode" modified="No">sequential</Option>
    <Option name="BatchSize" modified="No">-1</Option>
    <Option name="ConvergenceImprove" modified="No">1.000000e-30</Option>
    <Option name="ConvergenceTests" modified="No">-1</Option>
    <Option name="UseRegulator" modified="Yes">False</Option>
    <Option name="UpdateLimit" modified="No">10000</Option>
    <Option name="CalculateErrors" modified="No">False</Option>
    <Option name="WeightRange" modified="No">1.000000e+00</Option>
  </Options>
  <Variables NVar="7">
    <Variable VarIndex="0" Expression="leading_pt" Label="leading_pt" Title="Leading Lepton Pt" Unit="" Internal="leading_pt" Type="F" Min="5.07694292e+00" Max="6.37124512e+02"/>
    <Variable VarIndex="1" Expression="nParticles" Label="nParticles" Title="Number of Particles" Unit="" Internal="nParticles" Type="F" Min="2.00000000e+00" Max="6.00000000e+00"/>
    <Variable VarIndex="2" Expression="eta" Label="eta" Title="Pseudorapidity" Unit="" Internal="eta" Type="F" Min="-2.87590885e+00" Max="2.97644806e+00"/>
    <Variable VarIndex="3" Expression="phi" Label="phi" Title="Azimuthal Angle" Unit="" Internal="phi" Type="F" Min="-3.14097381e+00" Max="3.14128876e+00"/>
    <Variable VarIndex="4" Expression="deltaR" Label="deltaR" Title="Jet Width" Unit="" Internal="deltaR" Type="F" Min="0.00000000e+00" Max="8.02249372e-01"/>
    <Variable VarIndex="5" Expression="sum_pt" Label="sum_pt" Title="Total Transverse Momentum" Unit="" Internal="sum_pt" Type="F" Min="1.00917778e+01" Max="9.48382324e+02"/>
    <Variable VarIndex="6" Expression="delta_pt" Label="delta_pt" Title="Difference in First and Second Highest Lepton Pt" Unit="" Internal="delta_pt" Type="F" Min="0.00000000e+00" Max="6.37124512e+02"/>
  </Variables>
  <Spectators NSpec="0"/>
  <Classes NClass="2">
    <Class Name="Signal" Index="0"/>
    <Class Name="Background" Index="1"/>
  </Classes>
  <Transformations NTransformations="1">
    <Transform Name="Normalize">
      <Selection>
        <Input NInputs="7">
          <Input Type="Variable" Label="leading_pt" Expression="leading_pt"/>
          <Input Type="Variable" Label="nParticles" Expression="nParticles"/>
          <Input Type="Variable" Label="eta" Expression="eta"/>
          <Input Type="Variable" Label="phi" Expression="phi"/>
          <Input Type="Variable" Label="deltaR" Expression="deltaR"/>
          <Input Type="Variable" Label="sum_pt" Expression="sum_pt"/>
          <Input Type="Variable" Label="delta_pt" Expression="delta_pt"/>
        </Input>
        <Output NOutputs="7">
          <Output Type="Variable" Label="leading_pt" Expression="leading_pt"/>
          <Output Type="Variable" Label="nParticles" Expression="nParticles"/>
          <Output Type="Variable" Label="eta" Expression="eta"/>
          <Output Type="Variable" Label="phi" Expression="phi"/>
          <Output Type="Variable" Label="deltaR" Expression="deltaR"/>
          <Output Type="Variable" Label="sum_pt" Expression="sum_pt"/>
          <Output Type="Variable" Label="delta_pt" Expression="delta_pt"/>
        </Output>
      </Selection>
      <Class ClassIndex="0">
        <Ranges>
          <Range Index="0" Min="5.0769429206848145e+00" Max="6.3712451171875000e+02"/>
          <Range Index="1" Min="2.0000000000000000e+00" Max="6.0000000000000000e+00"/>
          <Range Index="2" Min="-2.7923727035522461e+00" Max="2.7932226657867432e+00"/>
          <Range Index="3" Min="-3.1409738063812256e+00" Max="3.1412887573242188e+00"/>
          <Range Index="4" Min="0.0000000000000000e+00" Max="8.0224937200546265e-01"/>
          <Range Index="5" Min="1.0091777801513672e+01" Max="9.4838232421875000e+02"/>
          <Range Index="6" Min="0.0000000000000000e+00" Max="6.3712451171875000e+02"/>
        </Ranges>
      </Class>
      <Class ClassIndex="1">
        <Ranges>
          <Range Index="0" Min="1.2256882667541504e+01" Max="1.4219720458984375e+02"/>
          <Range Index="1" Min="2.0000000000000000e+00" Max="3.0000000000000000e+00"/>
          <Range Index="2" Min="-2.8759088516235352e+00" Max="2.9764480590820312e+00"/>
          <Range Index="3" Min="-3.1144077777862549e+00" Max="3.0970501899719238e+00"/>
          <Range Index="4" Min="0.0000000000000000e+00" Max="4.9653202295303345e-01"/>
          <Range Index="5" Min="2.0020563125610352e+01" Max="2.3663008117675781e+02"/>
          <Range Index="6" Min="0.0000000000000000e+00" Max="1.4219720458984375e+02"/>
        </Ranges>
      </Class>
      <Class ClassIndex="2">
        <Ranges>
          <Range Index="0" Min="5.0769429206848145e+00" Max="6.3712451171875000e+02"/>
          <Range Index="1" Min="2.0000000000000000e+00" Max="6.0000000000000000e+00"/>
          <Range Index="2" Min="-2.8759088516235352e+00" Max="2.9764480590820312e+00"/>
          <Range Index="3" Min="-3.1409738063812256e+00" Max="3.1412887573242188e+00"/>
          <Range Index="4" Min="0.0000000000000000e+00" Max="8.0224937200546265e-01"/>
          <Range Index="5" Min="1.0091777801513672e+01" Max="9.4838232421875000e+02"/>
          <Range Index="6" Min="0.0000000000000000e+00" Max="6.3712451171875000e+02"/>
        </Ranges>
      </Class>
    </Transform>
  </Transformations>
  <MVAPdfs/>
  <Weights>
    <Layout NLayers="3">
      <Layer Index="0" NNeurons="8">
        <Neuron NSynapses="12">
          -5.6243317222849454e+00 1.7567951858199666e+00 -1.2451423840185953e+00 2.0865255550447198e-01 -1.0268113969967161e+00 -1.1405738196955522e+00 1.1592256770537361e+01 2.6177705019174899e+00 -2.2877833368928807e-01 -3.5611329990718317e+00 -3.6027714523612921e+00 -1.0897723764085967e+00 
        </Neuron>
        <Neuron NSynapses="12">
          2.9345365191142458e+00 -6.7714073952130258e+00 -1.0131194213396483e+01 7.5391581681358344e-02 -1.2679007474059860e+00 1.0148582609433030e+01 -1.3417818050768366e+00 7.2487784223633511e+00 3.5591375327810498e-01 3.0927774202726916e+00 -2.9897777758342285e+00 -2.2265662324843884e+01 
        </Neuron>
        <Neuron NSynapses="12">
          -1.6066330987240562e+01 1.8733689677654045e+01 8.7475803209959757e+00 -8.4448066773028820e+00 -1.7915538824892742e+01 -1.8398090173114252e+00 1.3845452226101357e-01 1.7114497572468363e+01 1.0581448265624389e+00 -1.3319432138047238e+01 1.7216185706271769e+01 -5.3440306548301852e-01 
        </Neuron>
        <Neuron NSynapses="12">
          -8.3274572389101706e+00 -4.2472128034359180e+00 -1.7427921035513064e-01 6.3132088294548785e+00 -1.9447781327462077e+00 2.0764289837211831e+00 -4.8294941135761611e-02 2.5366593768852486e+00 -1.5481612102649407e+00 -6.5439251775640166e+00 3.1318138747463644e+00 -1.8035043883683972e+00 
        </Neuron>
        <Neuron NSynapses="12">
          -3.0987762221712547e+00 4.9702422585821031e+00 1.3948369629547419e+00 -5.4172860396514579e+00 -5.6778758536323624e+00 -1.6129657853859392e+01 -4.1467546432066902e+00 -1.0576339180897538e+00 2.6110546476698731e+00 7.0284315622546369e+00 6.7019902467720174e+00 -7.5205337754534947e+00 
        </Neuron>
        <Neuron NSynapses="12">
          -8.5339597264138209e+00 8.5492422845491465e+00 -1.3815256004419780e+00 4.7346687260553591e-02 1.0599936450392157e+01 -2.2739826043537095e+00 -9.6585684074320999e-01 -5.4354150779120003e+00 2.3132014387000495e+00 -1.0306071106516210e+01 -8.9565261282732429e+00 9.0951026823296814e+00 
        </Neuron>
        <Neuron NSynapses="12">
          -4.7755762848890484e+00 3.3081611096131874e-01 8.5111845570245259e-01 -2.3771079001401665e+00 1.4814844543331669e+00 -9.5059672943502260e-02 8.2079493042544254e+00 -9.1898262993135527e-01 3.2875952993311532e+00 -1.2718148965378877e+00 -2.1460396166516826e+00 1.0156064851044735e+00 
        </Neuron>
        <Neuron NSynapses="12">
          2.1052549781250889e+00 6.2328140767251161e-01 6.6981553111061110e-01 2.3262161528129224e+00 -1.8564257679662357e+00 -3.4834246417955308e+00 8.2391867471693967e+00 3.8963115509957000e+00 -3.0106874943180348e+00 -9.0259853203033080e-01 1.0965514197290567e+00 -1.0011235242821323e+01 
        </Neuron>
      </Layer>
      <Layer Index="1" NNeurons="13">
        <Neuron NSynapses="1">
          2.3800916951712807e+00 
        </Neuron>
        <Neuron NSynapses="1">
          -7.9573660264149093e-01 
        </Neuron>
        <Neuron NSynapses="1">
          -2.6350679401407739e+00 
        </Neuron>
        <Neuron NSynapses="1">
          -5.5767777368400062e-01 
        </Neuron>
        <Neuron NSynapses="1">
          -5.3145698883712178e-01 
        </Neuron>
        <Neuron NSynapses="1">
          1.4830275161033535e+00 
        </Neuron>
        <Neuron NSynapses="1">
          3.0940506266216232e+00 
        </Neuron>
        <Neuron NSynapses="1">
          4.7217710044089367e-01 
        </Neuron>
        <Neuron NSynapses="1">
          -3.4250853577811653e+00 
        </Neuron>
        <Neuron NSynapses="1">
          9.5277870350681404e-01 
        </Neuron>
        <Neuron NSynapses="1">
          7.6620902115360956e-01 
        </Neuron>
        <Neuron NSynapses="1">
          -5.4015380900818855e+00 
        </Neuron>
        <Neuron NSynapses="1">
          2.8409535013692131e+00 
        </Neuron>
      </Layer>
      <Layer Index="2" NNeurons="1">
        <Neuron NSynapses="0"/>
      </Layer>
    </Layout>
  </Weights>
</MethodSetup>
