<?xml version="1.0"?>
<MethodSetup Method="MLP::MLP">
  <GeneralInfo>
    <Info name="TMVA Release" value="4.2.1 [262657]"/>
    <Info name="ROOT Release" value="6.24/07 [399367]"/>
    <Info name="Creator" value="kzhang1"/>
    <Info name="Date" value="Wed Oct 12 11:55:26 2022"/>
    <Info name="Host" value="Linux cmsbuild02.cern.ch 3.10.0-1160.36.2.el7.x86_64 #1 SMP Wed Jul 21 11:57:15 UTC 2021 x86_64 x86_64 x86_64 GNU/Linux"/>
    <Info name="Dir" value="/uscms/homes/k/kzhang1/practice/CMSSW_12_4_3/src/CMSAnalysis/DataCollection/bin"/>
    <Info name="Training events" value="438455"/>
    <Info name="TrainingTime" value="1.03774622e+03"/>
    <Info name="AnalysisType" value="Classification"/>
  </GeneralInfo>
  <Options>
    <Option name="NCycles" modified="Yes">600</Option>
    <Option name="HiddenLayers" modified="Yes">N+5</Option>
    <Option name="NeuronType" modified="Yes">tanh</Option>
    <Option name="RandomSeed" modified="No">1</Option>
    <Option name="EstimatorType" modified="No">CE</Option>
    <Option name="NeuronInputType" modified="No">sum</Option>
    <Option name="V" modified="Yes">False</Option>
    <Option name="VerbosityLevel" modified="No">Default</Option>
    <Option name="VarTransform" modified="Yes">N</Option>
    <Option name="H" modified="Yes">True</Option>
    <Option name="CreateMVAPdfs" modified="No">False</Option>
    <Option name="IgnoreNegWeightsInTraining" modified="No">False</Option>
    <Option name="TrainingMethod" modified="No">BP</Option>
    <Option name="LearningRate" modified="No">2.000000e-02</Option>
    <Option name="DecayRate" modified="No">1.000000e-02</Option>
    <Option name="TestRate" modified="Yes">5</Option>
    <Option name="EpochMonitoring" modified="No">False</Option>
    <Option name="Sampling" modified="No">1.000000e+00</Option>
    <Option name="SamplingEpoch" modified="No">1.000000e+00</Option>
    <Option name="SamplingImportance" modified="No">1.000000e+00</Option>
    <Option name="SamplingTraining" modified="No">True</Option>
    <Option name="SamplingTesting" modified="No">False</Option>
    <Option name="ResetStep" modified="No">50</Option>
    <Option name="Tau" modified="No">3.000000e+00</Option>
    <Option name="BPMode" modified="No">sequential</Option>
    <Option name="BatchSize" modified="No">-1</Option>
    <Option name="ConvergenceImprove" modified="No">1.000000e-30</Option>
    <Option name="ConvergenceTests" modified="No">-1</Option>
    <Option name="UseRegulator" modified="Yes">False</Option>
    <Option name="UpdateLimit" modified="No">10000</Option>
    <Option name="CalculateErrors" modified="No">False</Option>
    <Option name="WeightRange" modified="No">1.000000e+00</Option>
  </Options>
  <Variables NVar="5">
    <Variable VarIndex="0" Expression="pt" Label="pt" Title="Transverse Momentum" Unit="" Internal="pt" Type="F" Min="4.53686762e+00" Max="1.80610986e+03"/>
    <Variable VarIndex="1" Expression="nParticles" Label="nParticles" Title="Number of Particles" Unit="" Internal="nParticles" Type="F" Min="2.00000000e+00" Max="5.00000000e+00"/>
    <Variable VarIndex="2" Expression="eta" Label="eta" Title="Pseudorapidity" Unit="" Internal="eta" Type="F" Min="-3.99890304e+00" Max="3.99965811e+00"/>
    <Variable VarIndex="3" Expression="phi" Label="phi" Title="Azimuthal Angle" Unit="" Internal="phi" Type="F" Min="-3.14158106e+00" Max="3.14155507e+00"/>
    <Variable VarIndex="4" Expression="deltaR" Label="deltaR" Title="Jet Width" Unit="" Internal="deltaR" Type="F" Min="0.00000000e+00" Max="1.85853705e-01"/>
  </Variables>
  <Spectators NSpec="0"/>
  <Classes NClass="2">
    <Class Name="Signal" Index="0"/>
    <Class Name="Background" Index="1"/>
  </Classes>
  <Transformations NTransformations="1">
    <Transform Name="Normalize">
      <Selection>
        <Input NInputs="5">
          <Input Type="Variable" Label="pt" Expression="pt"/>
          <Input Type="Variable" Label="nParticles" Expression="nParticles"/>
          <Input Type="Variable" Label="eta" Expression="eta"/>
          <Input Type="Variable" Label="phi" Expression="phi"/>
          <Input Type="Variable" Label="deltaR" Expression="deltaR"/>
        </Input>
        <Output NOutputs="5">
          <Output Type="Variable" Label="pt" Expression="pt"/>
          <Output Type="Variable" Label="nParticles" Expression="nParticles"/>
          <Output Type="Variable" Label="eta" Expression="eta"/>
          <Output Type="Variable" Label="phi" Expression="phi"/>
          <Output Type="Variable" Label="deltaR" Expression="deltaR"/>
        </Output>
      </Selection>
      <Class ClassIndex="0">
        <Ranges>
          <Range Index="0" Min="5.4109196662902832e+00" Max="1.5004154052734375e+03"/>
          <Range Index="1" Min="2.0000000000000000e+00" Max="5.0000000000000000e+00"/>
          <Range Index="2" Min="-3.1151394844055176e+00" Max="3.0545654296875000e+00"/>
          <Range Index="3" Min="-3.1413636207580566e+00" Max="3.1411583423614502e+00"/>
          <Range Index="4" Min="0.0000000000000000e+00" Max="1.6577427089214325e-01"/>
        </Ranges>
      </Class>
      <Class ClassIndex="1">
        <Ranges>
          <Range Index="0" Min="4.5368676185607910e+00" Max="1.8061098632812500e+03"/>
          <Range Index="1" Min="2.0000000000000000e+00" Max="4.0000000000000000e+00"/>
          <Range Index="2" Min="-3.9989030361175537e+00" Max="3.9996581077575684e+00"/>
          <Range Index="3" Min="-3.1415810585021973e+00" Max="3.1415550708770752e+00"/>
          <Range Index="4" Min="0.0000000000000000e+00" Max="1.8585370481014252e-01"/>
        </Ranges>
      </Class>
      <Class ClassIndex="2">
        <Ranges>
          <Range Index="0" Min="4.5368676185607910e+00" Max="1.8061098632812500e+03"/>
          <Range Index="1" Min="2.0000000000000000e+00" Max="5.0000000000000000e+00"/>
          <Range Index="2" Min="-3.9989030361175537e+00" Max="3.9996581077575684e+00"/>
          <Range Index="3" Min="-3.1415810585021973e+00" Max="3.1415550708770752e+00"/>
          <Range Index="4" Min="0.0000000000000000e+00" Max="1.8585370481014252e-01"/>
        </Ranges>
      </Class>
    </Transform>
  </Transformations>
  <MVAPdfs/>
  <Weights>
    <Layout NLayers="3">
      <Layer Index="0" NNeurons="6">
        <Neuron NSynapses="10">
          -1.6895448267807136e+01 1.3235095152232944e+01 9.0231477909345226e-01 7.9314339724955305e+00 -2.9222476682758654e+00 -4.5819121573233685e+00 4.6056435492437258e+00 2.1181777409812881e+00 4.6483018017696542e+00 -2.7871080344725950e+01 
        </Neuron>
        <Neuron NSynapses="10">
          6.4557171944858078e+00 -6.7226630304683566e+00 -3.8995705149388162e+00 -2.1509154359743796e+00 -4.5586835154231303e-01 6.4568968785445380e+00 -8.5726772891144032e-01 1.6481410951425750e+00 -7.4149368697342269e-03 1.5833085813597508e+01 
        </Neuron>
        <Neuron NSynapses="10">
          -1.5205588306077428e-02 2.0635789465225391e-02 2.3977325430572280e-01 -4.1949026378747523e-01 -5.0777526279593648e+00 -9.1109325157367071e-01 3.0636486721488478e+00 -1.1217358672523923e+00 -3.4191111895940756e+00 -8.9197837798636784e-02 
        </Neuron>
        <Neuron NSynapses="10">
          5.8167675006139735e-03 -8.0503029274722721e-02 -1.0512524922806109e-01 -9.1303190422911632e-03 -2.2688472728753872e-01 -6.7201018808027016e-03 -1.0835330236118733e-02 1.4833354253436506e+00 3.2745251255400197e-02 3.6819226332669805e-02 
        </Neuron>
        <Neuron NSynapses="10">
          4.8279249706558254e+00 6.5445858890087809e+00 3.2733590890903561e+00 1.2493549633290598e+01 1.1915387656088547e-01 -1.0193933020948274e+01 -1.5636476552471107e-01 3.6412079413196069e-01 -2.0785849301532053e-01 -1.0309007322536834e+00 
        </Neuron>
        <Neuron NSynapses="10">
          -4.6979667936343699e+00 1.0120735341133642e+01 -1.2696238298892784e+00 1.6708499228300358e+01 8.6743993545739706e-01 -7.5104460345513226e+00 3.7717211236035491e+00 -2.1515072233997858e+00 4.5912509007385198e+00 -1.1856673467662114e+01 
        </Neuron>
      </Layer>
      <Layer Index="1" NNeurons="11">
        <Neuron NSynapses="1">
          -2.9984427447209838e+00 
        </Neuron>
        <Neuron NSynapses="1">
          -3.1248508911250239e+00 
        </Neuron>
        <Neuron NSynapses="1">
          4.0104327894738310e+00 
        </Neuron>
        <Neuron NSynapses="1">
          3.4869992953350430e+00 
        </Neuron>
        <Neuron NSynapses="1">
          1.6599709193433685e+00 
        </Neuron>
        <Neuron NSynapses="1">
          -2.1856201019628485e+00 
        </Neuron>
        <Neuron NSynapses="1">
          2.7168074736181342e+00 
        </Neuron>
        <Neuron NSynapses="1">
          -3.1064994669911478e-01 
        </Neuron>
        <Neuron NSynapses="1">
          2.6352715287943926e+00 
        </Neuron>
        <Neuron NSynapses="1">
          5.1859894869178707e+00 
        </Neuron>
        <Neuron NSynapses="1">
          -1.0601486032208367e+00 
        </Neuron>
      </Layer>
      <Layer Index="2" NNeurons="1">
        <Neuron NSynapses="0"/>
      </Layer>
    </Layout>
  </Weights>
</MethodSetup>
