<?xml version="1.0"?>
<MethodSetup Method="MLP::MLP">
  <GeneralInfo>
    <Info name="TMVA Release" value="4.2.1 [262657]"/>
    <Info name="ROOT Release" value="6.30/03 [400899]"/>
    <Info name="Creator" value="jpalamad"/>
    <Info name="Date" value="Fri May 10 10:50:50 2024"/>
    <Info name="Host" value="Linux cmsbuild105.cern.ch 4.18.0-513.9.1.el8_9.x86_64 #1 SMP Sat Dec 2 05:23:44 EST 2023 x86_64 x86_64 x86_64 GNU/Linux"/>
    <Info name="Dir" value="/uscms/homes/j/jpalamad/analysis/CMSSW_14_0_4/src/CMSAnalysis/DataCollection/bin"/>
    <Info name="Training events" value="503624"/>
    <Info name="TrainingTime" value="1.00080550e+03"/>
    <Info name="AnalysisType" value="Classification"/>
  </GeneralInfo>
  <Options>
    <Option name="NCycles" modified="Yes">600</Option>
    <Option name="HiddenLayers" modified="Yes">N+5</Option>
    <Option name="NeuronType" modified="Yes">tanh</Option>
    <Option name="RandomSeed" modified="No">1</Option>
    <Option name="EstimatorType" modified="No">CE</Option>
    <Option name="NeuronInputType" modified="No">sum</Option>
    <Option name="V" modified="Yes">False</Option>
    <Option name="VerbosityLevel" modified="No">Default</Option>
    <Option name="VarTransform" modified="Yes">N</Option>
    <Option name="H" modified="Yes">True</Option>
    <Option name="CreateMVAPdfs" modified="No">False</Option>
    <Option name="IgnoreNegWeightsInTraining" modified="No">False</Option>
    <Option name="TrainingMethod" modified="No">BP</Option>
    <Option name="LearningRate" modified="No">2.000000e-02</Option>
    <Option name="DecayRate" modified="No">1.000000e-02</Option>
    <Option name="TestRate" modified="Yes">5</Option>
    <Option name="EpochMonitoring" modified="No">False</Option>
    <Option name="Sampling" modified="No">1.000000e+00</Option>
    <Option name="SamplingEpoch" modified="No">1.000000e+00</Option>
    <Option name="SamplingImportance" modified="No">1.000000e+00</Option>
    <Option name="SamplingTraining" modified="No">True</Option>
    <Option name="SamplingTesting" modified="No">False</Option>
    <Option name="ResetStep" modified="No">50</Option>
    <Option name="Tau" modified="No">3.000000e+00</Option>
    <Option name="BPMode" modified="No">sequential</Option>
    <Option name="BatchSize" modified="No">-1</Option>
    <Option name="ConvergenceImprove" modified="No">1.000000e-30</Option>
    <Option name="ConvergenceTests" modified="No">-1</Option>
    <Option name="UseRegulator" modified="Yes">False</Option>
    <Option name="UpdateLimit" modified="No">10000</Option>
    <Option name="CalculateErrors" modified="No">False</Option>
    <Option name="WeightRange" modified="No">1.000000e+00</Option>
  </Options>
  <Variables NVar="6">
    <Variable VarIndex="0" Expression="deltaPt" Label="deltaPt" Title="deltaPt" Unit="" Internal="deltaPt" Type="F" Min="0.00000000e+00" Max="4.17565381e+03"/>
    <Variable VarIndex="1" Expression="deltaR" Label="deltaR" Title="deltaR" Unit="" Internal="deltaR" Type="F" Min="0.00000000e+00" Max="7.43082583e-01"/>
    <Variable VarIndex="2" Expression="eta" Label="eta" Title="eta" Unit="" Internal="eta" Type="F" Min="-2.44719529e+00" Max="2.44122505e+00"/>
    <Variable VarIndex="3" Expression="maxIsolation" Label="maxIsolation" Title="maxIsolation" Unit="" Internal="maxIsolation" Type="F" Min="0.00000000e+00" Max="1.65359100e+02"/>
    <Variable VarIndex="4" Expression="nParticles" Label="nParticles" Title="nParticles" Unit="" Internal="nParticles" Type="F" Min="0.00000000e+00" Max="4.00000000e+00"/>
    <Variable VarIndex="5" Expression="sumPt" Label="sumPt" Title="sumPt" Unit="" Internal="sumPt" Type="F" Min="0.00000000e+00" Max="4.24545654e+03"/>
  </Variables>
  <Spectators NSpec="0"/>
  <Classes NClass="2">
    <Class Name="Signal" Index="0"/>
    <Class Name="Background" Index="1"/>
  </Classes>
  <Transformations NTransformations="1">
    <Transform Name="Normalize">
      <Selection>
        <Input NInputs="6">
          <Input Type="Variable" Label="deltaPt" Expression="deltaPt"/>
          <Input Type="Variable" Label="deltaR" Expression="deltaR"/>
          <Input Type="Variable" Label="eta" Expression="eta"/>
          <Input Type="Variable" Label="maxIsolation" Expression="maxIsolation"/>
          <Input Type="Variable" Label="nParticles" Expression="nParticles"/>
          <Input Type="Variable" Label="sumPt" Expression="sumPt"/>
        </Input>
        <Output NOutputs="6">
          <Output Type="Variable" Label="deltaPt" Expression="deltaPt"/>
          <Output Type="Variable" Label="deltaR" Expression="deltaR"/>
          <Output Type="Variable" Label="eta" Expression="eta"/>
          <Output Type="Variable" Label="maxIsolation" Expression="maxIsolation"/>
          <Output Type="Variable" Label="nParticles" Expression="nParticles"/>
          <Output Type="Variable" Label="sumPt" Expression="sumPt"/>
        </Output>
      </Selection>
      <Class ClassIndex="0">
        <Ranges>
          <Range Index="0" Min="0.0000000000000000e+00" Max="1.7953436279296875e+03"/>
          <Range Index="1" Min="0.0000000000000000e+00" Max="7.4308258295059204e-01"/>
          <Range Index="2" Min="-2.3516466617584229e+00" Max="2.4088981151580811e+00"/>
          <Range Index="3" Min="0.0000000000000000e+00" Max="1.6535910034179688e+02"/>
          <Range Index="4" Min="0.0000000000000000e+00" Max="3.0000000000000000e+00"/>
          <Range Index="5" Min="0.0000000000000000e+00" Max="1.9072365722656250e+03"/>
        </Ranges>
      </Class>
      <Class ClassIndex="1">
        <Ranges>
          <Range Index="0" Min="0.0000000000000000e+00" Max="4.1756538085937500e+03"/>
          <Range Index="1" Min="0.0000000000000000e+00" Max="6.3499778509140015e-01"/>
          <Range Index="2" Min="-2.4471952915191650e+00" Max="2.4412250518798828e+00"/>
          <Range Index="3" Min="0.0000000000000000e+00" Max="1.4307935714721680e+01"/>
          <Range Index="4" Min="0.0000000000000000e+00" Max="4.0000000000000000e+00"/>
          <Range Index="5" Min="0.0000000000000000e+00" Max="4.2454565429687500e+03"/>
        </Ranges>
      </Class>
      <Class ClassIndex="2">
        <Ranges>
          <Range Index="0" Min="0.0000000000000000e+00" Max="4.1756538085937500e+03"/>
          <Range Index="1" Min="0.0000000000000000e+00" Max="7.4308258295059204e-01"/>
          <Range Index="2" Min="-2.4471952915191650e+00" Max="2.4412250518798828e+00"/>
          <Range Index="3" Min="0.0000000000000000e+00" Max="1.6535910034179688e+02"/>
          <Range Index="4" Min="0.0000000000000000e+00" Max="4.0000000000000000e+00"/>
          <Range Index="5" Min="0.0000000000000000e+00" Max="4.2454565429687500e+03"/>
        </Ranges>
      </Class>
    </Transform>
  </Transformations>
  <MVAPdfs/>
  <Weights>
    <Layout NLayers="3">
      <Layer Index="0" NNeurons="7">
        <Neuron NSynapses="11">
          1.4524696563545634e+00 6.8445496733166307e+00 6.5731438667905024e+00 2.1584933811495151e+01 -5.8242818282207924e+00 1.7820857142953117e+00 -7.3427494416694969e+00 1.4064644915522500e+01 1.1338326018100833e+00 5.3270855012481091e+00 -6.8717934068954580e+00 
        </Neuron>
        <Neuron NSynapses="11">
          -9.4924892377568728e+00 -9.9575848101196729e-01 -7.3901864616766391e+00 -9.4708315858655023e+00 4.3397430548240683e+00 -8.2209928972778599e+00 -6.0693992346482495e-01 5.1629055888512214e+00 9.6390055038270592e+00 -6.3859937392603303e+00 -1.1967508197779804e+00 
        </Neuron>
        <Neuron NSynapses="11">
          1.4175393639593600e-01 1.1757529008629364e+00 -1.8437427862461075e+01 1.3668681830562892e+00 8.3551988386612841e+00 -5.0442078949473030e+00 -4.0881018112679168e+00 -7.8200420434491775e+00 1.0702226072480461e+00 -2.5086492153921482e+00 7.9804327246273454e-01 
        </Neuron>
        <Neuron NSynapses="11">
          -6.4950549018011250e+00 5.8356595206783650e+00 2.0452834028405142e+00 -9.8743020053864523e+00 -7.1300947766490461e+00 2.8742201014933472e-01 6.0613057276896596e+00 -5.0157012733311506e+00 5.1584099715776084e+00 1.2913010813948754e+01 -9.5920156683252120e+00 
        </Neuron>
        <Neuron NSynapses="11">
          -2.2024267632335634e-01 -7.9806987447270938e-01 -1.2712063196288792e-01 5.0096417586753788e+00 -5.1543745109166172e+00 1.5663160032308956e+00 -7.2070758529222689e-01 -2.4312275626317508e+00 -6.0418756563449643e+00 2.5953198242918196e+00 1.2130516264997439e-01 
        </Neuron>
        <Neuron NSynapses="11">
          -2.8215972344866316e+01 -1.4528983804552807e+01 3.1631228162252469e+00 1.6900494173521459e+01 7.0375132337178439e+00 -8.3416205624016353e+00 3.1441603196554180e+00 3.0192700795940035e+00 4.7610617417740357e+00 -1.6236705331899017e+00 -2.0326749154193980e+01 
        </Neuron>
        <Neuron NSynapses="11">
          -2.4069817567263662e+01 -6.6021642891394217e-01 6.7242849012136956e+00 1.9135063596996694e+01 -7.5156631414343371e+00 1.0426789538179413e+00 1.2127303628849455e+00 4.6526434597599653e-01 1.7875559146359436e+01 1.0933220109821919e+01 -3.4929691864518517e+01 
        </Neuron>
      </Layer>
      <Layer Index="1" NNeurons="12">
        <Neuron NSynapses="1">
          -8.7468047233533763e+00 
        </Neuron>
        <Neuron NSynapses="1">
          4.9199960394884465e+00 
        </Neuron>
        <Neuron NSynapses="1">
          3.0255307953223669e+00 
        </Neuron>
        <Neuron NSynapses="1">
          1.9523229951563399e+00 
        </Neuron>
        <Neuron NSynapses="1">
          -1.7607565648964891e+00 
        </Neuron>
        <Neuron NSynapses="1">
          5.6383587175377325e+00 
        </Neuron>
        <Neuron NSynapses="1">
          -4.2653464894170217e+00 
        </Neuron>
        <Neuron NSynapses="1">
          -1.2375654550657218e+01 
        </Neuron>
        <Neuron NSynapses="1">
          2.9692496855125206e+00 
        </Neuron>
        <Neuron NSynapses="1">
          2.8813217254993377e+00 
        </Neuron>
        <Neuron NSynapses="1">
          -5.8369325239607344e+00 
        </Neuron>
        <Neuron NSynapses="1">
          -9.8870861748095518e+00 
        </Neuron>
      </Layer>
      <Layer Index="2" NNeurons="1">
        <Neuron NSynapses="0"/>
      </Layer>
    </Layout>
  </Weights>
</MethodSetup>
